FANN_FLO_2.1
num_layers=3
learning_rate=0.284400
connection_rate=1.000000
network_type=0
learning_momentum=0.000000
training_algorithm=2
train_error_function=1
train_stop_function=0
cascade_output_change_fraction=0.010000
quickprop_decay=-0.000100
quickprop_mu=1.750000
rprop_increase_factor=1.200000
rprop_decrease_factor=0.500000
rprop_delta_min=0.000000
rprop_delta_max=50.000000
rprop_delta_zero=0.100000
cascade_output_stagnation_epochs=12
cascade_candidate_change_fraction=0.010000
cascade_candidate_stagnation_epochs=12
cascade_max_out_epochs=150
cascade_max_cand_epochs=150
cascade_num_candidate_groups=2
bit_fail_limit=3.49999999999999977796e-01
cascade_candidate_limit=1.00000000000000000000e+03
cascade_weight_multiplier=4.00000000000000022204e-01
cascade_activation_functions_count=10
cascade_activation_functions=3 5 7 8 10 11 14 15 16 17 
cascade_activation_steepnesses_count=4
cascade_activation_steepnesses=2.50000000000000000000e-01 5.00000000000000000000e-01 7.50000000000000000000e-01 1.00000000000000000000e+00 
layer_sizes=6 9 2 
scale_included=0
neurons (num_inputs, activation_function, activation_steepness)=(0, 0, 0.00000000000000000000e+00) (0, 0, 0.00000000000000000000e+00) (0, 0, 0.00000000000000000000e+00) (0, 0, 0.00000000000000000000e+00) (0, 0, 0.00000000000000000000e+00) (0, 0, 0.00000000000000000000e+00) (6, 6, 5.00000000000000000000e-01) (6, 6, 5.00000000000000000000e-01) (6, 6, 5.00000000000000000000e-01) (6, 6, 5.00000000000000000000e-01) (6, 6, 5.00000000000000000000e-01) (6, 6, 5.00000000000000000000e-01) (6, 6, 5.00000000000000000000e-01) (6, 6, 5.00000000000000000000e-01) (0, 6, 0.00000000000000000000e+00) (9, 6, 5.00000000000000000000e-01) (0, 6, 0.00000000000000000000e+00) 
connections (connected_to_neuron, weight)=(0, -1.07055337622504907813e+03) (1, 1.49999980799998957082e+03) (2, -3.25842081797182956393e+01) (3, -7.23616975346353807907e+00) (4, -1.45528060549745372754e+01) (5, 1.67442532784770108378e+01) (0, -1.15027482791766871628e+02) (1, -1.04949292190832167648e+02) (2, -3.08039725362275751408e+00) (3, -1.54694097697825028170e+00) (4, 2.08201674643831075029e-01) (5, 3.44055501635203464517e+00) (0, -6.32580860184930656942e+02) (1, -2.19845901017938899713e+02) (2, 9.06784145160829946342e-01) (3, 2.32866622006036561032e+00) (4, 1.59039916362163658015e+00) (5, 1.06213189440771249572e+00) (0, 1.63033966466624036684e+02) (1, -1.58719726925745135304e+02) (2, 4.57772845093864333421e+00) (3, -1.42297645335196172311e+01) (4, 1.58189468138543087861e+01) (5, -9.21996704956095669559e+00) (0, 1.50000000000000000000e+03) (1, -8.99962456235042168373e+02) (2, -3.38396936759251474314e+01) (3, -4.37833406287459467876e+01) (4, -8.10763655382590897602e+00) (5, 2.74638348512362391318e+01) (0, -7.44864881194872282322e+02) (1, -1.58930546589571520144e+02) (2, 9.20534733667179771999e+00) (3, -1.17493471082912073200e+01) (4, 1.71379591780358246922e+01) (5, -2.15697313043305483049e+00) (0, -1.25004489446927792073e+02) (1, -7.51289551720135904134e+01) (2, -1.68138992212067450716e+00) (3, -1.21715163892990330119e+00) (4, -2.72478144403870192747e-01) (5, 2.92072620866448318111e+00) (0, -3.05087395811228674347e+01) (1, -2.07101979402465758540e+02) (2, 6.54754335014837796081e+00) (3, 5.66386711020642974468e-01) (4, 6.04272049468761629498e+00) (5, -4.48038454576376299343e+00) (6, -1.86120480787285131896e+01) (7, -5.01758900431076710902e+01) (8, 2.60336530490170119378e+01) (9, 2.79651556689875704365e+01) (10, -1.77272987216599631211e+01) (11, 4.68673281889665744870e+01) (12, -2.55122012727059725989e+01) (13, -7.45911990543949201538e+01) (14, 4.67281550943442791635e+00) 
