FANN_FLO_2.1
num_layers=3
learning_rate=0.315125
connection_rate=1.000000
network_type=0
learning_momentum=0.000000
training_algorithm=2
train_error_function=1
train_stop_function=0
cascade_output_change_fraction=0.010000
quickprop_decay=-0.000100
quickprop_mu=1.750000
rprop_increase_factor=1.200000
rprop_decrease_factor=0.500000
rprop_delta_min=0.000000
rprop_delta_max=50.000000
rprop_delta_zero=0.100000
cascade_output_stagnation_epochs=12
cascade_candidate_change_fraction=0.010000
cascade_candidate_stagnation_epochs=12
cascade_max_out_epochs=150
cascade_max_cand_epochs=150
cascade_num_candidate_groups=2
bit_fail_limit=3.49999999999999977796e-01
cascade_candidate_limit=1.00000000000000000000e+03
cascade_weight_multiplier=4.00000000000000022204e-01
cascade_activation_functions_count=10
cascade_activation_functions=3 5 7 8 10 11 14 15 16 17 
cascade_activation_steepnesses_count=4
cascade_activation_steepnesses=2.50000000000000000000e-01 5.00000000000000000000e-01 7.50000000000000000000e-01 1.00000000000000000000e+00 
layer_sizes=6 9 2 
scale_included=0
neurons (num_inputs, activation_function, activation_steepness)=(0, 0, 0.00000000000000000000e+00) (0, 0, 0.00000000000000000000e+00) (0, 0, 0.00000000000000000000e+00) (0, 0, 0.00000000000000000000e+00) (0, 0, 0.00000000000000000000e+00) (0, 0, 0.00000000000000000000e+00) (6, 6, 5.00000000000000000000e-01) (6, 6, 5.00000000000000000000e-01) (6, 6, 5.00000000000000000000e-01) (6, 6, 5.00000000000000000000e-01) (6, 6, 5.00000000000000000000e-01) (6, 6, 5.00000000000000000000e-01) (6, 6, 5.00000000000000000000e-01) (6, 6, 5.00000000000000000000e-01) (0, 6, 0.00000000000000000000e+00) (9, 6, 5.00000000000000000000e-01) (0, 6, 0.00000000000000000000e+00) 
connections (connected_to_neuron, weight)=(0, -1.23411558140462275901e+02) (1, -2.61101608183024097798e+02) (2, -1.70594049568927594862e+01) (3, 3.96121909230269952928e+00) (4, 1.29883685704671680838e+00) (5, 3.81613829675910842809e+00) (0, -8.16301621889937711884e-01) (1, 2.56194181790642652174e+01) (2, 1.20129258814842976300e+00) (3, -2.05771516560025036213e+00) (4, 3.20924173420516423150e+00) (5, -1.39015141311037737637e+00) (0, 2.62163883014455450393e+02) (1, -5.30312235929303028570e+02) (2, -2.65421079068295817649e+00) (3, 4.13626440596611288925e+00) (4, 1.40222685179991124471e+01) (5, -7.76602284364331918454e+00) (0, -1.10432066788398083190e+03) (1, -3.65140016716052912216e+02) (2, 3.33131068089212289962e+00) (3, 1.00397477428590438109e+01) (4, 4.69781918400046638595e+00) (5, 5.13804198092878250392e-01) (0, 1.03711687925655314757e+03) (1, -1.24399295790428652708e+02) (2, -4.28164629450521658782e+01) (3, -2.84045655304248327866e+01) (4, -5.60795583995087554285e+00) (5, 2.26555993579815257988e+01) (0, -1.50000000000000000000e+03) (1, -8.53792922317502188889e+02) (2, -2.06705719942736054762e+00) (3, -1.12949784753645787738e+00) (4, 1.21904927603209429776e+01) (5, -2.04366593694592113550e+00) (0, 7.49911903177602852111e+01) (1, 9.09554748464466769065e+01) (2, -1.04797503520556922751e+00) (3, -3.97843798336997878096e+00) (4, 4.17537972135198920398e+00) (5, -7.18004625477008051604e-01) (0, 1.51991301999489092367e+01) (1, 1.93723229287764695528e+01) (2, 1.23952272757333559206e+00) (3, -2.14005141655552311164e+00) (4, 3.23543825239933635629e+00) (5, -1.35000152581219823311e+00) (6, 3.44228299497145897590e+01) (7, 1.16533072044199016659e+02) (8, -2.59027623514041280828e+01) (9, -1.43100916322089783961e+01) (10, -1.48432770727052023574e+01) (11, -9.33824137277546029168e+00) (12, -7.37125564366039753850e+01) (13, 6.11266028542160171355e+01) (14, -3.39526888683790883938e-01) 
